0.83176302151620185,0.50365872252221422,-0.59124061645300774,0.33180529923938828,-0.10003979841365183,0.1574824475799248,0.12152096388210246,0.34993831396933373,-0.22816877023940371,-0.82550754578150021,0.64796335191860144,0.69656793338185863,-0.5027651722644837,0.36297178359896737,-0.010209612546124401,0.56467781144282025,0.26820919013013489,-0.58924232698800383,-0.57971228807154307,0.12243653183223048,0.73220494737147623,-0.3089484029909137,0.42816706335351967,-0.63395912178063796,-0.81270127854475094,-0.61984566637621197
-0.047523163441122618,0.79882390854026719,0.042269452222164494,-0.2383005884493552,0.58876385959924615,0.9261953453949604,0.27657763405052749,0.045918192312287325,-0.37271760125773729,-0.17315287909236754,0.69816728267946404,0.67782532394622019,-0.29922020571633112,-0.095011460115463672,0.31522641993568845,0.34022886901647897,0.66913811169510096,0.47423889596321361,0.1470474890845006,0.56864796313883326,-0.98385955991984775,-0.092836972616851657,0.17212466677060734,0.16006633654246041,0.49550851580029759,-0.67991450508362994
0.48509970691871329,0.16584232174341818,0.59527856915157895,-0.77673998218511042,-0.12866929617632494,-0.37488502704487048,-0.62172217495674009,0.23403762035602349,0.71309601312874693,-0.37003581569898508,-0.24643854771936599,0.37252263777702987,0.016531486788610602,-0.83962176685096335,-0.86580616904025565,0.15547862491378295,-0.029115132061801493,-0.37069603639283399,0.35043612087040565,-0.48899357133152499,-0.94884129360344782,-0.074305302481124214,-0.57407780218519089,-0.89849644710200693,0.6381774471292061,-0.15661283812249627
0.41929064947026468,-0.8803988415415358,0.39587478694401113,0.37227982683500332,0.16809875004086772,-0.66087562947483303,0.83659218484441333,0.18233102156725176,0.1974510524301254,-0.91623847338790043,0.39497349011915456,-0.023144201235057119,0.16994154670198067,0.34604839281005467,-0.54847916082447878,-0.16375835047236431,-0.25533626220521555,0.048340554427296796,-0.0017705604555033894,-0.23505996643582616,0.6809336275805955,-0.2156421302622116,-0.9815308560403132,0.090772709333364787,0.77168495139237536,0.93991763375435422
