0.48470529831353137,-0.5744068350807825,0.12637160822050908,0.56854634852301911,0.18100476022894463,0.96921729416256119,0.30804799629161406,-0.7560509449770787,0.71175219754389296,0.078519163363694133,0.5981737001107823,0.74067710863151737,-0.012714503356620943,0.51846804291789605,0.37816070119723699,0.94116881837353494,-0.84322781263909219,0.38865816366015271,0.029272683451147419,0.53407798398632456,-0.6999254509571271,-0.56753052715115504,-0.15291933588588047,0.95274976038482784,-0.11680281472525822,-0.070580773340485514
0.23738983252680201,0.042575363299448554,-0.98912935906526367,-0.70545989007759702,0.56252845999165602,-0.039896994299618349,-0.5051992319205354,-0.93934877949636086,0.42562265737269667,0.7807464132358064,-0.019035909702048714,0.070407717159875149,-0.4427701048457513,0.67471118581139855,0.13309214747608422,-0.99630767461224012,-0.010900704788681326,-0.6477779820669074,0.64144892052733971,-0.12348783205641856,-0.55462103522211104,-0.031943592107297025,-0.71654939309755949,0.8363634342917301,0.36669781003373858,0.76864956343603841
-0.74957218114684876,0.94316551965528195,-0.68802528258767226,0.86273254731203464,0.3799970240801005,0.25697421031224765,-0.20605759529592693,0.88974157125463083,0.89887098871390259,-0.033487268971868378,0.85002891071721343,0.70064216269982227,0.83937442688827701,0.53329007249721805,0.21667497952810399,0.24476031857008418,-0.41672206596989581,-0.78036185337453956,-0.63739617537953808,0.35780357008881936,0.71468742020349962,-0.46870925706639288,0.13659006424961606,0.24755317217066808,0.71612440563926727,0.96732020955310039
-0.9960659975791788,-0.57697253550596228,-0.076958367426216201,-0.37803841169951458,-0.16385370929428578,0.70782609908944738,-0.99940769382204908,-0.047177211407964936,-0.63924593539742047,-0.91954658556392799,-0.49477895559260743,-0.92845584362569533,-0.9584964129372886,-0.86175815401976208,-0.68188262202869065,0.7440114820726198,0.50927792195553745,0.13987518677136523,-0.44449230435840148,-0.7134661143665828,-0.201710324653819,-0.23682556442202807,0.58765198228291959,-0.06883902535508124,-0.029373122660545814,-0.69081538827822486
