0.78877720313179056,0.20453647012231713,0.05666581397656012,0.40179807321911332,0.55760658635320826,0.46925723288284171,-0.27528702296725904,0.47934611585429043,-0.43236970256847718,-0.28406065641327749,-0.28855734585061477,-0.12941974459997563,-0.94307318767444692,0.38732154877089187,-0.13991812953842819,0.81552727625145827,0.31946090440394381,-0.86030661864904556,-0.6580691679261319,-0.14059714006269908,-0.7547946419808258,-0.54190881599566998,0.053709714458871849,-0.082741002710856826,0.76794152423325035,0.35138549297551891
0.81377947266258666,-0.026782549600766981,-0.51840992507240191,-0.19871366893907094,-0.73213876715753479,-0.68973472402969405,-0.93600415799559267,0.32419527214222743,0.72709931111281922,0.71899655989270506,-0.2439893044868271,-0.32052862296566675,-0.36882645007541526,-0.50821896800890531,-0.28397719805900334,-0.51651907325515967,0.47556355785717752,-0.64514714108169824,0.11379459155141136,-0.9117541124448072,0.20534482443774982,0.10312632100890773,0.94825408322967109,-0.39557930938403363,-0.099277302468761874,-0.20902865589017061
0.29466685792645109,0.87664471976167913,0.96957380924994219,0.19215200527604059,0.54895236863692887,-0.18467454927852778,-0.96594135372007428,-0.96267638977648362,0.45811897602400742,-0.37283549999475762,0.82602481644667902,-0.76517282146594079,-0.75838293207528285,-0.60006128695117389,0.5377211755508069,-0.93624313043823149,-0.28427555450194286,-0.48810191123435676,0.36795155157848547,-0.39519389992866549,-0.64498835306523894,-0.82653180335463827,0.3825854871364418,-0.36699761129275776,0.63804523544008385,0.22241172664665365
-0.95442171466535974,0.14341192430034311,-0.56156642947723423,-0.76104446447970786,0.058868523685948748,-0.15801694050558646,-0.90830659448716045,-0.12057806821996686,0.30009736761468275,-0.63152926958411504,0.67378548785017967,0.61213735184161022,0.78431203323926879,0.23868005107705192,-0.3270380213646773,0.3804355027620987,-0.89521359024646396,0.56357981630630216,0.63156968722672291,-0.20936056338488074,-0.17316717862993047,-0.31202285267093455,-0.68168046273872673,-0.75751926157370275,-0.096947493021676268,0.90234235955497555
