0.3822795652009503,0.82248970070954885,0.26113536767408618,0.64989899606187396,-0.91291154741441605,0.91338865548531811,0.30041467955289813,0.71246134795593252,0.89915159349278562,0.14015917262231015,-0.10378803611688903,-0.80781414319196521,-0.20257283397653403,-0.33674050577240711,-0.040504541023620666,-0.68731379792710379,-0.21052755657754152,0.24286991330044727,-0.78529651538689271,-0.39076678113414021,0.31561553423738875,0.7927464813822902,-0.49354113118139376,-0.48547005049378522,0.40452893779857635,-0.22621550649954147
0.98332465329392926,0.86628786710676575,-0.33338088969654955,0.24946253435016752,0.10779902073345604,-0.64963432230697205,0.59681565914648971,-0.39089822510182404,-0.48819361642599657,0.39281484297605074,0.98567844614172806,0.45957345309518693,0.014522826746567352,0.25822549089451474,-0.73248435720904337,-0.51182363033551992,0.77026516564537206,-0.39227722603798632,-0.94528440123791024,0.0065119926192684918,0.78964257808166205,0.41377796420944279,0.23202680596277614,0.73701601083817292,-0.28744655163199329,-0.65233899069744883
0.81857388059150327,-0.37867892218640664,-0.8244756317538644,0.88450688827283797,0.5327059561662173,0.64443270271577258,0.34915297841565929,0.81695517585069188,0.75333009434711218,0.54018558427372043,0.61097343310676222,0.18422886291958318,-0.32580880380036814,0.73812933170052442,-0.66493132633890428,0.45358126895448936,-0.82412690706267466,0.43825013722586847,-0.060337730085009644,-0.72563447738057563,-0.16458032092590136,-0.0075900991526276496,-0.35759225742363654,-0.85284970558231032,0.36126188541027182,0.75045002396100102
0.84044624849351579,0.28766383070921431,0.099944595591982432,-0.88208848855893107,0.93966062717995347,0.92710726975361957,-0.1838928021996582,0.57083172557071404,0.6364016043904055,-0.92577856928819902,0.035235670822596044,0.55820239082611178,0.7613294641474373,0.10971630789337761,0.10938942339469504,-0.28501990446617853,-0.75904013726675013,0.5796074258338404,-0.98891035570078811,-0.50758001449613244,-0.010840684903791198,0.8707874715164412,-0.58344482866973824,0.90956976965909186,0.53224887396271026,0.64780967186646699
