-0.60829025430870853,0.38022715983737521,-0.91006485690412919,0.9494651165141732,-0.20523184380462345,0.6936636376359866,-0.90595843711615798,-0.0058508469980398381,0.027586160425147721,0.30953157934825315,-0.98434921780904139,0.56306392295923491,0.61049251962195039,0.17406490040422473,0.51376481673756991,-0.50337355764982816,0.50194460642350225,-0.39276935844111249,0.76870704773512299,-0.56265057547651987,-0.30903392087828507,-0.61047299152267342,-0.17659604112542171,0.91468518061263193,0.58178864318760515,0.11369252105277616
0.81260747574771419,-0.90337740791262089,0.99791733170348884,-0.13289506866731382,0.031432174582112005,-0.12567307913024295,0.45922567200152442,0.1412216224801166,0.029277804002091345,0.55083900103037942,0.083167909705555099,0.067408624599333722,-0.01176910576660517,0.51688604393035442,-0.40444762742211648,0.35471480439823622,-0.037767024088508627,-0.28971344778090002,-0.25185325109679635,-0.82760958722510591,0.52452564470924345,0.10499319115303685,-0.55615064185789498,0.34672222795106111,0.13016996250528456,0.8146813958928778
-0.62559123221356683,0.27734397714817627,-0.069323899562790281,0.65167196353682399,-0.5433183166232558,-0.77438375693885031,-0.96792474836549136,-0.83799329595486349,-0.43550683725729478,-0.51752868276257136,-0.52445439148378137,0.51448120782702911,-0.081096254537580181,-0.50610379456663535,-0.2792956223196319,-0.803852311954111,0.2059376911145856,0.6991174274412244,0.11445114693200376,-0.83692453099118147,0.83086083982331571,-0.58964767533512719,0.57451224884906704,-0.28797406349229382,-0.91062231563776574,0.5779257809678755
-0.22236468295678291,0.99265069908893167,-0.92498593853444433,-0.3030908822776901,0.98019798557536064,-0.4475731393695328,-0.033494904456792485,0.51623739435285398,-0.16056800971577556,-0.31102398910765294,-0.098742090124779525,0.98817719174322893,-0.98168305617673246,-0.70383893429549627,-0.41650681946779256,0.22348345890891452,-0.74868180213156554,0.4981286510637053,0.40614698135683414,-0.84806514699401814,-0.82970971615036104,0.49412258369679218,0.76175503033614178,-0.30878574321270902,-0.1668260018085348,-0.89330658046763656
