0.70326274371046948,0.3503956995519153,0.64135576068241762,-0.70859020844656961,0.064492693026774184,-0.22995800354883977,0.44239139410225836,-0.74207824946452949,0.8818538513955525,-0.46012052585565288,0.059293266784876897,0.045643834322023791,-0.21381533968456101,-0.26307342841441961,-0.37969656788238071,-0.41689115043332325,0.54310259486449008,0.0935467112742836,0.74853531617609681,0.61630394539587763,0.63555492756098775,-0.12873507328476497,-0.014290042738048792,-0.69252327097185162,0.8934214087705401,0.96886397499689303
0.15729880627745652,-0.025470374694524622,-0.67655999475346973,0.87184151527402687,0.39584487171146931,0.29152638925156316,0.45507801653803015,0.33905407084930528,0.33424216158610909,-0.33279697425215793,0.1489584881237882,0.16929378356402669,0.71496445326681513,0.68335737650678818,0.14787082027807319,0.93475299307366266,-0.19788724779603939,-0.48539012927813707,-0.97868642798806849,0.77765885260115231,-0.6385666158455181,-0.43647782432320792,-0.90076708616665191,0.40959633519475158,0.88472613485697282,-0.57466627135480031
0.80510393225991939,-0.050856386589252622,-0.33505113948193643,0.45248248079640563,0.53781114207172087,0.62074335973909034,-0.70084862209704113,-0.28216937921416529,-0.94213581799848578,-0.1860006877555016,-0.87001263473629287,-0.95340263918408685,0.77576999915770006,0.90207203480523335,0.65596365685517322,-0.26248140683314669,-0.92283386156041725,0.64801202299097094,-0.053796059668861584,-0.410784433509499,0.34828372088941983,0.39340203628567005,-0.49852566865401782,0.23959918006904823,-0.77738238899135803,-0.91329844699885965
0.75150664106027598,0.29932246761493286,-0.72818322323840667,-0.65380331975993955,0.66808509936553184,-0.5083903703236452,-0.84911316107376433,-0.74459301851004045,-0.083361130100686021,0.66711817177023103,0.25817101423460542,0.72071789299922639,0.48380991575592502,0.50035199853716228,-0.030803470583075754,0.71406783676040475,0.13421522989446499,0.70530929245903184,-0.21475802661492804,0.3782476998836044,0.34743428779372643,0.41635503544010177,0.7991130574773333,-0.30143773304250687,0.41718239461765649,-0.85373126629576479
