0.89185423577285694,-0.017724010564386328,0.53782878219605701,-0.26608534670544737,-0.2508355396748414,0.26841841864109517,-0.98409245505858811,0.51836430296552205,-0.53705676293094595,-0.90351909085016846,0.77060746499527166,0.63966527158790476,0.0018195126708568932,-0.01882216383158819,-0.4671666038888862,0.022167339507162875,-0.25885007701233675,0.35597379595414202,-0.84018262313551584,-0.71532665075494228,-0.60476426022463459,0.12366907866281984,0.4242991167671708,0.30824927127673996,-0.68088714839626308,0.74466662962604735
0.45719408122674454,-0.18988428636045751,0.038010867287749051,-0.93007488253840398,0.95878728595001994,-0.74445490622913191,0.23084100191985435,0.63759494001558203,0.14782854918926369,0.67891395868003857,0.70723277287223318,-0.16613407319446938,0.11172577318099086,0.42815662089345241,0.68565874099046953,-0.47822425347264641,-0.27112280959486923,-0.61043843853054214,-0.40529814091387895,-0.81658946479453953,-0.87893317369398938,0.24136394782574166,0.59950464947442583,-0.39681461841552279,0.48192885108172723,-0.90570348244272458
0.33364774743845604,0.85787376197426135,0.36084636334533626,-0.88886301262305722,-0.87144481370259341,0.39480046809758873,0.53925687307439696,0.75945423463530659,0.52265285408254569,-0.31385131542152789,0.82590703142250743,0.47758480506955214,0.09690111642110244,-0.12239669587346058,-0.77038009661844664,-0.39746535287074281,-0.49931909453788559,0.069485542748044526,0.94473478371257524,0.12692689401777413,-0.98957040887701764,-0.34748034250972704,0.66552478296684914,0.13002070895400353,0.32002090221855961,0.82231703656991328
0.55917034956934719,0.36175490592706949,-0.76770613170189206,-0.57276755539762192,-0.29992966691067702,0.9818331993517897,-0.80897700892278923,0.82069379748098692,-0.36511162228534144,0.30943650211323526,-0.75798219828479585,0.63544815427282342,0.29645593129801084,-0.082893134173388505,-0.51446730509537053,-0.9790571192850237,0.3394938900720732,-0.12701662432339322,0.56516884970504377,-0.58231765346605902,-0.85639945920496241,-0.57908074353445738,-0.19114912054335775,0.072205280981962217,0.61649142868294726,0.63285508377363353
