-0.69419701430336134,0.72558454939350003,0.4957261351336224,-0.76005160177537712,-0.077409371719841635,-0.20926369822996693,0.29430440443211259,0.28830701257637092,-0.85232347494445881,-0.13685832840003354,0.065795211164396239,0.86095259109914357,0.5681700969985386,-0.78852050529480877,-0.16490655147755429,0.75970244035996459,0.17782028511236558,-0.43172924642861843,-0.92072262032043017,0.78883961471596398,0.57661560505078113,-0.7206678503892916,-0.63906379107579636,0.24786413326051848,0.67751587180274542,-0.64746195230080361
-0.82297881510757986,-0.40335084705993807,-0.3682938777428244,-0.76847615973824812,0.61864523520734482,-0.20427898615499696,-0.93851795490954659,0.53396064379160202,-0.29061637329497136,-0.066131255351477902,0.83748854800517014,-0.39507980247895635,-0.65850771641307149,0.82796168454273489,-0.27127266964816776,0.12950693961424098,-0.87906379475511454,-0.67697011672231389,0.12715255968903127,0.85618657915017615,0.44079931510986792,0.84445923549640534,-0.26844324366454142,0.7321422318405697,0.48790059559209298,-0.58211180961841258
-0.63223160788539179,-0.00095553204048637319,-0.32340874471618841,-0.45778344180770136,-0.11366182859636242,0.51353403288390598,0.7761257161774644,0.48169589271425894,-0.59229648434645066,-0.54002209981893134,0.73808568181101308,-0.082400821696402726,-0.37126892286466573,-0.026730253822017769,0.55600874629772568,-0.46514681132142144,-0.63370555055532707,-0.42087214374355542,-0.046370241238432586,0.4842615395833092,0.15060334456099844,-0.35763737599713452,0.26853859432603855,-0.21086193663835262,-0.047393441331611497,0.01130347042681179
0.80453610141841203,0.36530380648741345,0.14207955301717679,0.2804023186961051,0.97963708737887112,0.91551188057536503,-0.51909873549390984,0.51174200390559088,0.80597702148062034,0.52833760750040248,0.35754787306340696,-0.61094987353892605,0.0807356102322907,-0.68802431635515116,0.33445822269949832,-0.58693796632335737,-0.48075641886661358,0.66420797478523608,0.024859246180521488,0.021560099727889082,-0.5129377822411858,0.25184091884523552,0.39082948898971259,0.94576312572781873,0.44207566710528923,0.039555534383292734
