-0.5527778889873225,-0.68630182639157633,0.1384336252719609,0.71556976259048644,0.06876184396867524,-0.3375627491127362,0.81765323180643201,-0.89638275729939965,-0.83724338883939109,0.36708346130859559,0.76236916604200911,0.043567828507102391,-0.063458270783999682,0.21976124730631974,-0.15498560385676052,0.86018652507454441,0.014682296550230456,0.49594989277647294,-0.93533522704237804,-0.99237167640395607,-0.26191173939830392,0.50523322314534846,-0.16448404412996109,0.013522325141734681,0.98916454967878753,0.27058233310572444
-0.20661664024863424,0.47271159671920793,0.79817717126104815,0.47027804147124019,-0.30914067249729804,0.97492997358007583,0.33560079291083622,-0.62899694275321427,0.93526945101659287,0.12755120748723758,-0.29805235154575982,0.48068606727262542,0.12109719582320255,0.78780304152302461,0.29417361503196737,0.98791325494501891,-0.64978082415328409,-0.12418100670547805,0.11258277448664367,-0.35091540995174419,0.46667613817649478,0.090371772289818075,-0.85870413337638429,-0.49057837548435179,-0.083587362158669798,-0.063724443879249471
0.23389528387660841,0.89842624024466566,0.83833347802850366,0.54510127512071138,0.58876950002284656,-0.17160937126318476,-0.70480272674850308,0.91134918546235366,0.88671817962489441,-0.12996371062341261,0.7547035568584386,0.84545468842279714,0.94296425874995116,0.12382701996258305,0.36997773068795015,-0.64732510487445749,0.8976602369477007,-0.20756933866184712,0.4072327883587743,-0.42681344710874969,-0.070860361061342747,0.47358228412729098,-0.50008892469118638,-0.32447846325526686,-0.4730618125559003,-0.57323423776585325
0.57925109249977513,-0.83215078861292513,0.61327045925538926,-0.53761701220912572,-0.70746892128717476,-0.80032037712607251,0.048228371359674505,0.67421592324437829,-0.42272200824010997,-0.98955200913650732,0.80303974426856795,0.31013414544922191,-0.063107627861327398,0.42303646748402879,0.30613125985651979,0.8818537068459309,-0.082827469866544101,-0.42411781937999371,-0.65577495289336474,-0.79867478053223628,-0.20246101790550419,-0.026873452324252423,0.83789905480646265,0.72253223794793953,0.90650073253001895,-0.40036619106058313
