-0.058956075949044839,-0.95289865909582172,0.14833094942270786,-0.4860704154118991,-0.9832241930902319,0.4664565781114951,0.914415931534865,0.34481044948491912,-0.68812779371935351,-0.019894223854554527,-0.66332988730607001,-0.63647199766631402,-0.094953142216846365,-0.21098625456618425,-0.24135172529784699,0.16129488643136236,0.40690386772819043,0.29153219050373713,0.76675595928477502,-0.10874280142809889,0.8905252191672639,0.21790285407055121,0.41986072554276066,-0.39296497714238132,0.72321905758064764,-0.43923132618491501
-0.0063163972964395132,0.018726583716131673,-0.18785392192749062,0.557144762354157,-0.17379311737474357,-0.19343545869437251,0.33780465459033171,0.22913498048080738,0.83194545591205293,-0.78966609596000414,-0.5189174836004693,-0.55170424677907492,-0.86569429014260413,0.90706697201233766,0.93372728525073678,0.58888677198643191,-0.93615455169835782,0.49640380057760414,0.59186388106867382,0.71426635289719176,-0.041751300398202185,0.24105911051300621,0.1828263280760607,-0.59075670638119981,-0.75123065467172934,-0.9391813317866502
-0.24695236516728558,0.036179274371683778,0.1735144476687096,-0.72096197865391765,-0.33845033634207433,0.98152313138067737,0.20221515913617427,0.17191414445762598,0.21045905640890306,0.56013705138546799,-0.53906531036359562,-0.15396042411362987,-0.51122676599100925,0.34032797975894757,-0.7026868824150494,-0.24225471639502794,-0.32514489330909324,0.039058937658003945,-0.24413411530902507,0.97927433377335782,0.2022809271439534,-0.20840740550911208,0.42811912903745553,-0.059299181981675053,-0.39961956175241964,-0.1305133606750386
0.25787360628646327,0.34285775546263819,-0.73954728119543645,0.92728849465190311,0.24261030431644381,0.49734420858643791,0.8312047893123955,0.36733449612325919,-0.72372421812740595,-0.50943829803366425,0.37058976192557869,0.52860573191400406,0.65372187023164985,0.39446796083834701,0.024021203398971958,0.52108392035175455,-0.20287349720899717,-0.51641449834979403,0.067075303922778939,-0.43287701874007034,0.22541589802546658,0.88717579492179222,0.71623956476590656,-0.23984090254645074,0.20515272967087572,0.10338322753945262
