-0.88511042585350297,0.42883796184714296,-0.23144744769785475,0.62560554347722719,-0.12312028692183841,-0.50611220709169236,-0.49243611202382054,-0.85652447919443642,-0.19947743192818734,0.67741499500451119,-0.99543278327162321,-0.7511993656200362,-0.26548356657474703,-0.024123610084169744,0.26302698880096931,0.015264534712421618,0.40899132014895745,-0.51252587141023698,-0.6128959499981379,-0.22936282424173227,-0.7580599895348199,0.71336521717179813,-0.37789085159545688,-0.50588230440257909,0.70726257334366438,0.11034981637380725
-0.069091367439434892,-0.91447383242948721,-0.75856669657459497,-0.53926442899842453,-0.11482608785510728,-0.3989227147149319,0.92600830157554603,0.84703032567800363,-0.18007684645559552,0.74638335131062661,-0.81806040047130479,-0.88839180318001376,-0.77949973097993008,0.18581821953931099,-0.34211733865013083,-0.63341524629165269,-0.95695963579586873,-0.97712991185280562,-0.40747192832484069,0.54980776324151392,-0.32739319233783637,0.84888152746946499,-0.78617564325646505,0.93679990422124226,-0.13999625699414397,0.97667705606021671
0.67448724544347272,-0.061662890905638257,0.55660452076991795,-0.94808556565923929,-0.98887406541922473,-0.062088542681072667,-0.30328220461493749,-0.66283486461405849,-0.48402783177843811,0.24237129895642706,0.91855127534848791,-0.26254414265660508,-0.75409259597676059,0.4568196941297693,-0.5225474142993618,0.82731553224696852,-0.42164480498691903,-0.86731486070856501,0.10090077268362907,0.66781004692992219,0.96314953698571171,0.88097953275882968,0.5217204418841519,0.24475295267416075,0.58820091029380905,-0.5069128580050497
-0.67914825081681185,0.051843431568545428,-0.27638934537694526,0.95349516444591154,0.50557761880127328,0.91429655174038738,0.42823674044139781,0.15484873133717425,0.32126677012081428,0.8976176577015138,0.42102386529304092,0.41277084848771906,-0.42212874197956984,-0.11474958991793183,-0.80941291985680452,-0.61311630628634894,0.2642926868254496,-0.98662650625683668,0.093928762659968079,0.48508622031336013,-0.28307597533573747,0.49450064748567102,-0.57465489806107017,0.32673915288667987,-0.82594487687493912,0.60386428723078001
