-0.049381325239895801,0.56184334535024805,-0.11952418981861257,0.6236010001981025,0.57284848133304078,0.86177162088329617,0.64587328918489528,0.61553450686571365,0.70963974089317627,-0.50086286531886759,-0.63391337495384237,-0.59472496650514839,-0.56840729912050869,0.91043393576283971,0.37929766635464035,0.15963854528823762,-0.53722333017303581,-0.73608108971379127,0.43850332872075448,-0.15014956659377021,0.20454045781282715,-0.78385603210104615,-0.63131225384715295,0.21990714899140706,0.30264537334968877,-0.78288808563892487
-0.1810389371068728,-0.27960124831115407,-0.9112371737933842,0.55863692406709031,-0.011843218640245734,0.37562305621457837,0.52689429914799035,0.25192195812415319,-0.83141919232154193,0.98134047792674517,0.99310107624448452,-0.39359109039838547,0.13480854634309614,-0.012004151602648561,0.65445844666642472,-0.25623876372636056,-0.98207236781125684,-0.57126623182487379,0.65927626013103313,0.86442494361715827,0.28511280346289736,0.5077839169876015,-0.56972353926228569,-0.54743076288326598,-0.11292883078737193,-0.47855885208576465
-0.92138114506135183,0.54918768836786391,-0.095267878190403055,0.93896648966247054,0.87416283499585168,0.64203661012257252,-0.50922165041682321,-0.34001657728984491,-0.093254903138672685,0.902288555154803,0.44533635739153876,-0.93752310068500311,-0.97980705018069747,-0.063063365676439664,-0.47881087572943493,-0.001079129523944955,-0.75549334710507021,0.47782681469112309,0.92767491221805964,0.37416555846507227,0.71204739784085169,-0.70627401673783119,0.48855887759089978,-0.58405884167036648,0.28818137616308603,0.067117718718265218
-0.74228975168855316,-0.005346218385196444,0.79061075759632238,0.6297139630428823,-0.64958861043271354,-0.26460880347621107,-0.048356704973618658,0.41614797528455849,0.10691808834424732,0.054130450240041927,0.34498223251309112,0.42743714266773591,-0.92680594688913387,0.41070933541472732,0.8567295217257429,0.50411629236985189,-0.29669667404661126,0.10333824136093539,0.85515695912823997,0.81245253757739122,-0.01511040455058299,0.76765011661598059,0.19609265867171377,0.50946427743159051,-0.11051070063097246,-0.77752628658831258
