-0.59749923233516689,-0.26155922124332287,0.67839033388442305,0.73845857809471527,0.66592956768316358,0.040393847458972454,0.30042554943067956,0.15072211989559903,-0.31482384489720583,-0.78610999137337023,-0.91167278785991113,-0.83098849007515474,0.90702836141078103,0.83763366106555859,-0.18297283839046807,-0.66003801462927547,-0.16455804392159989,0.010599034396452378,0.33702611108186709,0.013360607201884367,0.72946823431094754,-0.9297433114799647,-0.53439100886206803,0.94098823197982595,-0.78165448254568326,0.37923977169551981
-0.53825266059692423,0.20025776483315205,-0.66394061896618983,0.98213577712354394,0.8952914302073407,-0.66370604595074689,0.59126507157588493,0.43572575075980446,-0.58604800643063237,0.8788600817056651,0.20481080787262895,0.75518894667321335,0.0028740267969711297,-0.0069393727843591879,0.66206816476091301,0.28415080105368262,0.028261074532269559,-0.82171085808319067,-0.79997396999674386,0.05098360559355708,-0.32895344286152861,0.41199550605242341,-0.22140095169706719,0.92154447632783265,0.21567857889687003,0.84493527727950291
0.72937797213522604,-0.86145829455594281,-0.9681796945479999,0.65430171755523436,0.3326075259930823,0.36415032947908621,-0.29458656278394924,0.64998901181287572,0.17648098355393382,0.4306482632749089,0.25683101215231763,0.45978127041108929,-0.12883945812672914,-0.3123415300434258,-0.84278287216159575,0.59154298308378306,-0.88500024827092116,0.417797715291095,-0.77305824310427074,-0.84118343665948636,0.23231894996014324,-0.53500327852088669,-0.61778905912730075,0.56742724420263047,0.086727159195624459,0.28895784028172988
-0.28945828335109502,0.42590210571367382,0.90460168610984004,-0.18750451697038395,-0.56890852152884741,0.046205908420636987,-0.82039663360366122,0.52350961275288221,-0.47818295639852249,0.36443949027318512,0.50350778440263988,0.44329274829624477,-0.73212216042632328,-0.35211207337942962,0.63133892160930505,-0.16487887588831729,-0.12789780996021971,0.86058523383903873,-0.85563369560072844,-0.6150412044545428,-0.23448808762542783,-0.79180855132555128,-0.049739920538570681,-0.29260623406748643,-0.16522030170567437,-0.97843252015023485
