-0.99852513902445428,-0.20554795149183569,-0.74107524568330274,0.23277603071818698,-0.48315785567535752,0.88251156412924625,0.27916011117256523,0.1423676891371084,0.10669208052301915,-0.49538916626850904,0.92229317249891296,0.47082998282493316,0.87394530163522877,0.92722655684761546,-0.90162387719884807,0.83932476976892167,-0.20401015876995232,0.28839642470399363,-0.91801761713036423,0.8005614583290801,-0.050642667481120229,0.48800698662374575,0.84929618674045759,0.59448767943074809,0.32774970123594871,-0.49867296420397578
0.66493952381749155,-0.37191189433159022,0.21107425524331469,-0.61612525192109935,0.20162680881522865,0.31573894683041881,-0.77267939626471072,-0.72831918978898358,0.32544999355294624,-0.58213217095122638,-0.12169313201244347,-0.73490541941581888,0.30282570487873639,-0.9395392439658854,0.40699869875592976,-0.37701815526798987,0.35115523007756733,0.15581335211575165,-0.62706233920347199,0.22879240267966172,0.20329677683944825,0.75195644541927642,-0.020937498320284131,0.78888527861220314,-0.72644494039757013,-0.28759379487020453
0.1272606633459179,0.5774631683500675,-0.41732837672593082,0.68025483432097311,-0.067365174833021735,0.67084204100888933,-0.91877259625224905,0.1531889732802787,0.92045163087507631,-0.19195513910830031,-0.71894731378181898,-0.98014607450676494,0.57516442506036247,0.80917472767606524,0.81487520640248401,0.7940995737352099,-0.51420667874859682,0.34009678431332624,-0.47348619486852095,0.73977532210089603,-0.92685676393746408,0.90191588160088143,0.17654429952274642,0.50133116765680463,0.53057139967342648,-0.19652959428258798
-0.45959133488111292,-0.091129865098407592,0.76318030223148314,0.60320217053844116,0.88227169932637395,0.85933737980468505,-0.096253405137795234,-0.81497655566189775,-0.57380360054871749,-0.38025678379529992,0.020765208097431209,-0.43347878145476182,0.080569180951180819,-0.051764818515882327,0.065296244198228326,0.36461457678038633,0.96320615527852138,-0.47744347441696466,-0.60129567760444425,-0.051180645950132497,0.22478364670576356,-0.50328080005644793,-0.23612366283206265,-0.42174115920956678,0.40783565133192035,0.17506037479382774
