0.84183728680417969,-0.1707608329601995,0.032267212128346712,-0.81948648802980251,0.95749290593535896,-0.065869944994265683,-0.11746348353020908,0.39218268713038351,0.1542681943106694,0.67092763929835453,-0.84177729717502348,0.16476305370034217,0.19142801878070337,-0.025169095852748846,-0.8428924061566847,-0.78357848203366109,-0.15177693712510543,0.4935685297065,-0.7274954002031675,-0.10211622806373888,0.58516094778539363,0.94878286216443741,0.27120336283106594,0.56439235486278672,-0.29568209613722618,-0.60716178466474457
0.68744340872883858,0.076053438177307031,0.05588683981222542,0.59286335153508918,-0.31138287274893428,-0.65276804090203133,0.80234692790469375,-0.22504532356805806,0.73840660281583137,0.70360390931740735,0.19976183991247543,0.89717100721985066,0.34151894077910905,-0.74816833863749821,-0.79289870447607913,0.48480403770852742,-0.89323926914904517,-0.95480579429715973,-0.12004082113293357,0.95319979768005014,0.16376609918550322,-0.43456225509863189,0.73599259439005849,-0.43168472788478018,0.15144063639669847,-0.29487040750050952
0.12872125870712381,-0.67813512926299202,-0.88147799919777126,-0.42213050795775842,-0.45137667537308324,-0.26096820898916362,-0.8468686540712913,0.0569030704646456,0.30861096771244334,-0.15077389248783857,-0.3250114308763512,-0.85453195866282305,-0.85242705422689125,-0.68219498569307491,-0.73986971040190674,-0.22894099400601919,0.62173109549327576,0.44059000659815672,-0.46019919415900623,0.73935805303622049,0.27463843553427147,-0.65565794043525094,-0.50793879860862101,0.091600930309639894,-0.44454719880046256,-0.080219998665188363
-0.27789485464145902,-0.8567139480454582,0.10732183468718892,-0.40820720056920612,-0.10016929420565779,-0.25971285260912169,-0.023220870389864867,0.89612619956220141,-0.7951400260997723,0.42078332511834415,0.33202151845270422,0.17209150446366639,-0.61213661792423535,0.19047947680321964,0.0041143876962892456,-0.43454247110223387,-0.45548424486861161,0.67749371455119722,0.037890389837329508,0.66090600113140408,-0.9729678989152184,0.25154647311066913,0.55551233243042741,-0.58998592412566486,-0.72538588266342541,0.36962950842198206
