0.18284724394265184,0.038474980348230714,0.53879198135611683,0.54177185689635787,0.68317811797396888,-0.31961381120367394,-0.036678523415328401,-0.78411652824897549,0.99786708828912385,0.10340078939489294,0.86807948625566378,0.94680050048042008,-0.6821488330399994,0.35019504217572295,0.0213082816717447,0.84548649116605779,0.075169193429977632,-0.87791419212257882,0.11037882226537832,-0.20985753299079368,0.41791492003546993,0.65677524302541701,0.015481891139434989,-0.19906693299632572,-0.42461389430202079,0.80875505497199041
-0.76331316768256774,0.46943112420502975,0.030152624299737196,0.1873611258400063,-0.35152660710595951,-0.79962619715646976,0.68686857898007458,0.59021513452188712,-0.63469423932391811,0.014376733784073448,0.73156253339652566,0.78250863084617373,-0.14472762520422644,0.1731237824930203,-0.72030472453351524,-0.66351855282806071,0.52234416507995163,-0.13105444645283915,-0.40474738203599947,-0.37280396322763831,0.086795217482608322,-0.71681231325063255,0.73371707709851486,0.24156452419430963,-0.50671546048560234,-0.81563735017505334
0.91415864142658254,-0.90686553119930791,0.96191323859568678,-0.98012631379309978,0.6937486560971502,-0.51181521716731537,-0.95636070869030321,0.89606669913358306,-0.20561991607357433,0.0084016934008952493,0.38488435957969402,0.74225829555343026,-0.7077238226068947,0.283315263947999,0.15414152826263883,-0.53538985085930024,-0.038737381087330602,0.91780668054992431,0.97282078218760848,-0.039530066862430768,0.18838398066224604,0.38567794771956909,-0.36519507600850898,-0.6111678021795881,0.14865565615332299,-0.42100010614585415
0.57029777423497241,0.75208125239214452,-0.57056188337012426,0.250840974069797,0.42947734240272961,0.65303310918853485,-0.41132995052878241,0.18087243159818023,0.05731118509240507,-0.23985632995322614,0.72012356950371026,-0.55669373967626878,0.13553016277602303,0.97358548827870361,-0.95349375415132842,0.37071589598539045,0.10464619760179827,-0.52449791351507358,-0.5545266483016158,0.86990954713857227,-0.13718019753375388,-0.14952336512260334,0.76049319843603191,0.16801030927770588,-0.94211352470933796,0.57683971279737589
