0.30845451259731704,0.22870899422778179,-0.83867525373575913,0.43153546651569985,0.76870997603209701,-0.66825100295301287,-0.81177296792360232,0.42279193554688344,0.89895969650086371,-0.40883298380608335,0.96153201057309357,0.42512977719912426,-0.49424580718957634,0.11208347056453127,0.95686682250485222,0.7935755408084133,-0.37720975382347599,0.79820338414897707,-0.22108185983865947,0.057203638490519682,-0.7208584934338913,-0.018823319831238194,-0.96632131685021383,-0.718185479795582,0.58523655551995013,0.65178107332813195
-0.94273033878423984,0.99054089053531347,-0.42565725015378564,0.56688175345661729,-0.42159885356178806,0.23511263875253308,-0.66530254576869297,-0.93602503493171563,0.3630476980831554,0.11203270220491235,-0.94549077550254457,0.67610548581884,0.020533269907921703,0.1637224251783409,0.90970485482732633,0.085070233668133044,-0.52862572807393948,-0.84774306977971881,0.62174804916402837,-0.29268819621577191,-0.17644614810877091,-0.01189159617327129,0.55393179525527336,-0.314340971404105,-0.7061488834631493,0.49454175038011416
-0.00017678420329669819,-0.86240943736079223,-0.63371664147226769,0.66716731181336741,-0.86697800584621687,0.94491445567049492,-0.98389895340968625,0.81218478685616691,0.054306767906375786,-0.49281288972810899,0.39477939573673648,0.19321458934306324,0.029590706781064791,0.0032585741119013356,0.39299558220362374,0.51495013734440032,-0.96643095383988786,-0.81440700404870059,-0.67729700231100853,-0.14597209905768671,0.73670974978352621,-0.70644776210804783,-0.87826018985528553,0.77518296674094889,-0.54846117500529101,0.18202289201418109
0.74507801610077196,-0.40458923416790959,0.12152251774089984,0.51411025559247214,0.74687164001058881,0.45059472425618563,0.092130154959677357,-0.71408235036286238,0.31102415055393062,-0.86837606777973364,0.31064299333823198,-0.81686797600293737,-0.82712965752558509,-0.85815591799908786,0.1747397658891976,-0.11050280143320634,-0.87913610821011035,-0.44554224277829224,0.0078782168706044153,0.14507439880226092,0.72839754701520087,0.40115683258505541,-0.69344506441789489,-0.52555873604224423,-0.94928862840975614,-0.85795012549563343
