-0.25677832330373662,0.087355205403933711,0.48837030274275972,-0.19595066951690576,0.65504171625861529,0.38968020361601696,0.95132612147902562,-0.024737597077519213,-0.83461687849688859,-0.31822160892570084,0.70666867490683583,-0.33649573046222092,-0.30214760971822407,0.73730026119905046,0.85164506524857164,0.22514595963111828,-0.53149055574275494,0.41976465575968014,-0.57762700283014756,0.53423572953294651,-0.49775262324870884,-0.22946684003638529,0.91457158551474893,-0.45978428962282192,0.39244439069425163,-0.9648318194837131
0.85359185443273211,0.95094045102762403,0.42118831438278659,0.66979590547843282,-0.21699872594869718,-0.030964245988320149,0.033748036133284032,-0.95422360922570215,-0.82270375256869488,0.29574598963315757,-0.19084271662391483,-0.97800951783112788,0.50265460847185839,-0.51054205822236165,0.70150913466798559,-0.44362752382636783,0.049628121743953368,-0.96198878818701861,0.68031358192085922,0.044260221402034228,0.82388345107416416,-0.19999906805825618,-0.070200014183830373,0.36730838026829637,0.1464111599852953,0.90180365311996713
-0.78404284438176419,0.90551525479375106,0.45668193368420451,-0.77846218147465063,-0.89484358389182228,-0.54184269736157109,-0.44512611975056515,0.04871785322369071,-0.22368351092430316,-0.30766446371134659,0.84547189930731559,-0.88104192008952142,0.18755252144095969,0.88103761307652162,-0.39012566317097752,0.74350881587286111,-0.56180808060525012,-0.54832493038305397,0.17808962089376368,0.8791860805459617,-0.38100759902716508,-0.3756161113230736,-0.4435086085724842,0.66140780475959993,-0.42006405796301238,0.47552330982274316
0.19787373052967538,-0.54782498485215902,0.53500372927727557,0.5665037273286655,0.57826507381776882,0.83695684042264729,0.82822971073863005,0.92921285650443464,0.98819919711628756,-0.84426964863206622,-0.75717022991546457,0.58926353014259125,-0.18432627001792623,0.55146417366959422,0.19758931020670278,-0.69919131943781765,-0.030729093621374215,-0.38138697040486291,-0.31583549451999549,0.41581560370161785,-0.0005231402387113615,0.9415014110445723,0.82058126469556369,0.62837800564071467,-0.52917846124392831,-0.12438197232259629
