0.32703651893853669,0.69629660983969655,-0.89169883554965357,0.28484499286518661,-0.44330008848725688,-0.62477233366259166,-0.5312897776668517,0.61056356189768968,0.93569021765417282,-0.59292696009602186,0.15141172205520426,-0.59755109462214162,0.62449856298535145,-0.84186142535362918,-0.65324853212454448,0.59356447564700932,-0.38685853435067585,0.32757866605593278,0.96924628684474468,-0.45908059235933818,-0.020431811186098159,0.62554887170626627,-0.17518761431401941,-0.37644746320181488,0.73948052056271529,-0.019487181308069701
0.05846446601841615,0.74212606837529682,0.21960482853895269,-0.95453161961943156,-0.21039654856700163,0.8498568427353792,-0.49926743782308258,0.8529696157791109,0.98686122228032747,-0.75727507996625865,-0.12318762131833583,-0.93984207980431789,-0.93274733000618082,0.7635496813997944,0.065828741028882476,-0.13132110502302963,0.51225297881542486,0.45231244336644894,0.25496656367264992,0.47097276412432332,-0.77961120576296095,0.1768922528000183,-0.66126531165768854,0.27046786296666436,-0.32354973984215651,-0.99957681629095907
0.83672640410252752,0.39376020472423101,0.27747365880003638,-0.5617292712354307,0.81862109392399507,-0.67804622855189534,0.33807921512580852,-0.81252593778904925,0.64468384230123821,-0.60288992077525538,0.30095726207608231,0.016494452444856478,-0.98073171936927439,-0.70046029712524605,-0.7667190686356542,-0.60741987866117797,-0.61040814889305883,-0.056322042881297163,0.72959526724989132,0.97907196186351286,0.31435896048415302,-0.44237237338750068,-0.04131264249159905,0.8987304992913161,0.86943901661938172,0.2389492721621771
0.91802501309242479,-0.43372131857135354,0.36467176659812095,-0.56283245388648973,0.25524426380055387,0.4860750680431718,0.61977393585026208,-0.62894582634845975,-0.40225563049092128,0.29141738394085848,0.16748916769348043,0.58365783379778691,-0.50623478513304176,0.16007983640298473,0.60329361503092827,0.64821866740176826,-0.12385713465339787,0.91889279971553073,0.92747713342671223,-0.81363618465837018,-0.85709409857941732,-0.87737642691547579,-0.88811390583833982,0.61069962362660335,-0.18737514257050125,-0.39993893864958863
