0.11111802602285148,-0.78973784144105652,0.066450459092477043,0.63285042786022383,-0.17987177159954437,0.015249871928708414,-0.45880758131338917,0.58239977024837852,0.45951175407312861,0.6308095470833277,-0.46985489625226551,-0.032014874253797121,0.42744387890743796,-0.27629433593325037,0.31343768030462127,0.041696418821415948,0.69306335056876422,0.95716712444449947,-0.70472774923459758,-0.11384356215591951,0.1372953889344064,-0.62912013410875445,0.20631733072195257,0.55227134049882998,-0.79790569531957423,0.31634900256602139
0.59152951220496797,0.48529743287809435,0.22465510686419177,0.59306636777241395,0.15727516197760116,-0.0045175477588355051,0.37211902521090257,-0.35800508775761686,0.30784907046967169,-0.8445917129198981,-0.3747790317307429,-0.74763824011316404,0.74045097225371159,0.95504743230248201,0.16991138327885413,0.29667054898081191,0.46402561974311607,0.66469977133534619,-0.16105531562760933,-0.98498316488186366,0.44113571083248826,0.0032370948527817855,0.58636683604482864,-0.64593015378219554,0.43340682936799246,0.57472638187587655
0.6851479580579134,-0.84083785069916184,-0.16602351918652958,-0.73246133717002326,-0.95354646104862106,-0.77858018880215352,-0.37933592818172035,0.82344702465977471,-0.97414917397449208,0.46983368526881208,0.77713552441391176,0.14893428427956379,-0.084357084259430115,0.94684091431185435,-0.55050186193476458,-0.59667468195365614,-0.15501083476859545,-0.117246284164781,-0.72788316632198669,-0.56559412804730935,0.13726226433428312,-0.48138739759650306,-0.47486418752301507,-0.015268907180511881,0.10875262025981702,-0.46431893215791331
-0.42013231947215424,0.93341535638047723,-0.34672079660552679,-0.55587204537841894,-0.12556485026390329,0.14554224613309019,0.71319958680456708,0.26090161701439785,0.62906639109320128,-0.88628353808868776,-0.65824653654684973,-0.91339624385935947,0.833814052121161,-0.26572033959355856,0.83928219320816178,0.21349129835423053,-0.66338009254912067,0.25740382226275682,0.56230772830572495,0.14085768355423012,-0.47168535762008745,0.87136882753596723,-0.99584321621656824,0.5916250592637029,0.16159341999682986,0.88936274231356038
