-0.22336167242233396,-0.091548496624558995,0.63939793614215934,-0.59847706700131997,-0.52440339996853336,0.89013540367357846,0.22454479104662961,0.60045121598579332,0.32190649301595142,-0.17111233004086168,0.17294138635075851,0.72947573419499045,-0.57188211883623419,-0.61925715149964056,0.37279814588661453,-0.8080347295717365,0.067262524550582459,0.84304268165554075,0.71190597705792058,-0.97786521569142959,0.42796708116706794,-0.095090269896063839,-0.89542633844049702,0.079904443943799475,0.70542516467993166,-0.35649874274225368
-0.44256250833809729,0.87608523466947097,-0.48642934742487265,-0.33158023094883471,-0.43662824384566923,0.51814436666749142,-0.39881066535478293,0.083120292294357911,-0.12337429490846508,0.85335766826636639,0.77851941148838466,-0.24068019808739205,0.50769421510829038,0.17163104715397925,0.89915692015126991,0.33871833598240686,0.49390187420397158,0.9105992878503435,-0.11967664095293462,-0.80427164547680863,0.29550486866023928,-0.015707409321843224,-0.061857776305299206,0.08760267091070828,-0.75399397698739734,-0.97400129736382124
0.12085625668858602,0.94747030189376802,-0.23606990722349641,-0.21673526786940744,0.55479100017661209,0.50182571337236648,-0.40428072317201824,0.13371358929920762,-0.61328061109231502,-0.5651082466982229,0.41382041815619774,-0.53146258036045491,0.16871984092786962,0.46584592278659898,-0.14722167071270209,0.45564600337604655,0.30960864442097824,0.15778930303009275,0.94411693185555201,-0.74456832383268368,0.20728637584818754,-0.42857982481427648,-0.17860229670543637,-0.739866382938136,0.98880041765413984,0.76340072363989742
0.92844310653191298,0.67920108068787388,-0.84841020059599104,0.8137749750974943,0.6063020824297547,-0.63091656418552833,0.52049962112931514,0.35286778950234488,0.70650893226027822,0.30166053784759495,-0.81038186485608921,-0.79567160507593737,0.63652775119481886,-0.97354367022232147,-0.28485354185249601,0.75537322356308256,0.7419795729142793,0.45186703736552514,0.38851943406837997,0.54721455305229161,-0.35454731461914557,-0.21212524474916905,0.58038261625868803,0.59321935493805134,-0.04343308495310616,-0.57969428539971313
