-0.55114001646681654,0.27911589604204701,0.62264079392935523,0.0077144596056288872,-0.51460270908386829,-0.21779011767342382,0.98282576782443565,-0.038836975537850593,0.12494209912353305,0.66538635415721403,-0.033520514342507468,-0.97654693282456573,-0.45914247358212457,-0.42057741063030751,0.81514673780422964,-0.9113110646633209,-0.57985379123494862,-0.49936592134973856,0.39029007604097798,0.28425275028521613,-0.94783339873322858,-0.47716337128335362,-0.23902966183491259,0.22671794159286707,0.70609940813818928,-0.070371116758678021
-0.84486476305044644,0.93233274373414354,-0.24256178419963947,-0.36085131864551401,-0.39501731306516996,-0.21668370499896716,-0.75724235413698215,0.51507748928537267,0.68779763402904015,0.85275717365340187,0.55314865945459624,0.64573026071843898,0.060424621616255836,-0.79725464402581503,-0.092599509059499985,0.11925566457450976,0.27201813144634546,0.11777688139118481,-0.22391650506683392,-0.30730964302766317,0.053228741148426462,-0.40203395797379082,-0.86274586904754313,-0.61723650906765304,0.9380969421022054,-0.83644003419786928
-0.5632791334904057,-0.60745843666488208,-0.51118438214768536,0.3229351506975926,-0.047996549218742857,-0.36048812006430353,-0.61389820403364315,0.62610951192426834,-0.88701830104245638,-0.1265022406089833,-0.45431340502271045,0.13793151430739603,0.90904136298800187,-0.31096765059933396,0.24217213475361632,0.93873906763572812,0.40290730437401612,-0.60971967056441723,-0.33436017797828677,0.14103437460153567,-0.98294223748170051,-0.47102338476798011,-0.69277334672982449,-0.17754396978013065,-0.51089595137714094,-0.1566211528225685
0.43971094848705006,0.68761762546619987,0.56799633317814435,-0.38058822590573071,-0.18380995768741193,0.45999221384733868,0.46816276204426344,0.32475616879172997,-0.46149565866308206,0.69375756739337024,0.82364637039313449,0.82337324863180705,0.94039477196577681,-0.85063455536714705,0.78797093313072741,0.67299688474694697,0.93210214253331736,-0.72013277895067329,0.31874115887957166,0.90090934785428511,0.019054381681577359,0.50075978634367813,-0.071439351582835764,-0.33558912683514919,0.92251776609349334,0.52614645106086511
