-0.30596637057058729,0.9313373599830046,-0.97662910787345081,0.16116010256300384,-0.2311178136252765,-0.43794247829311028,0.8583568025755699,0.56493110782100264,-0.39964324581256028,0.97015695379104505,-0.15696088404923159,0.26281319447866158,-0.96195347761456884,-0.84563015461310975,0.046747119783427271,0.2947866695827599,-0.6406468273905348,-0.43010258451017136,-0.51872224336466854,-0.14586710262690628,0.34790547507826552,0.8187845782816614,0.61090514204914581,-0.42801658964285538,-0.22356915356938956,0.68466026886134368
0.0043069949496425952,-0.044426205481079784,-0.63917414166219011,0.4858316470623405,-0.56885088257140093,-0.98199201418222826,0.77866438710388364,-0.48189841074248085,-0.52899241891316717,-0.31529220999677787,0.9632780176884852,-0.10146754828513416,0.70221275381505821,-0.36860941921092749,0.82621029440190252,0.79019502787314999,-0.47697237040488272,-0.19635146494079359,0.66783960251004815,-0.066806879795441976,0.8471355485676304,0.74249400128875687,-0.31174515890099253,0.19725027084538094,0.63714024703106098,0.052839758466723952
0.3596300124059395,0.21106813704903682,0.052413767192958538,0.82019404580852151,0.51912129614434965,0.83805675792892464,0.90365689678708994,0.29482940857128814,-0.95031249818278973,-0.42523572357483141,-0.43261941707973572,0.39766437048071079,0.11774256578893283,-0.99849145869826939,0.52735426031121491,0.82012610618949178,-0.11461352908083144,-0.73960247208838759,-0.27621396794215847,0.29695249336678198,-0.90802591129614263,-0.16967147261768956,0.83619069446808347,-0.63932831790890177,0.20734471083111194,-0.79921120775740873
-0.12479094499194221,0.96779402089948441,0.41870438516415009,0.284763707736303,0.56552082967845152,-0.32024671640193736,-0.36410042444120294,0.8496329566406442,0.44599434862994802,-0.37154350534856451,0.386859705400044,-0.98540171272787092,-0.21193458774946605,-0.75834344770755568,0.14792762337740673,-0.33054372439674151,0.5718595352820901,-0.56770027381123311,0.47158710101980827,-0.18887867643374157,-0.37025530518851113,-0.9579753643309088,-0.63965701465703595,-0.78546452130330913,-0.55589164296657789,-0.87813196192297505
