-0.80819139646466742,-0.054913752980620512,-0.05734743638574491,0.17629524665558716,0.71791408304547466,-0.25827029069089269,0.13606733854565256,-0.16135995714178031,-0.013637629131612705,-0.31376230058155863,-0.78915690836518637,-0.96200552356708369,-0.06125996778951448,-0.22609005198175058,-0.7871471715536178,0.62218672775667683,0.65828325659456444,0.17380436682691802,-0.23236893083528232,-0.99300359017147199,-0.13823750221028952,0.12918562978651971,0.45213965539872869,0.99366153952570624,-0.31311528128863397,-0.98162527441342329
0.58128025953003193,0.2557218544252855,0.89539750825052389,0.92377469339935603,0.56770330437292671,0.9277669229351182,-0.61885373085667705,-0.06073273402264423,0.81818498064977963,-0.3936591906824003,0.97196673380786858,-0.34111500844082254,0.84438275649172589,0.1071435723109091,-0.014525062092596519,-0.29743581128434449,0.85077302276037647,-0.62523996110340296,-0.18748741238927802,-0.85560517575507467,-0.29470743985185233,0.5536657853043927,-0.51480656007232484,0.84482181068246431,0.62920694788103004,0.80267036399237601
0.066394300956978514,-0.70619869582849137,-0.57470275235512935,-0.44734523380281388,-0.065469127362941526,0.54672180145683158,0.76837867503807789,-0.30918039495973271,0.063028709644427972,0.11233217266397277,0.66057914515815308,0.84472033119948065,-0.9133458588643335,0.36809011447106932,-0.084598766722324248,0.3608849573915851,0.15370394792280928,0.61485627000473886,-0.94236394799603129,0.078318208308780113,0.25176650746878204,0.56748392518831525,-0.58356125088501809,0.17922569913836739,-0.66616586712370518,-0.70946592187916546
0.16172082362267348,-0.69953338830104839,-0.13659590925349407,-0.083451975035918613,0.5104559859369906,0.69942440832579611,-0.7737207627647642,-0.90575915720084454,0.12304158671372023,-0.010369587753246146,0.44568042926165741,0.81228078757553335,0.048288707689580601,-0.23204659555509499,0.82128964422962669,0.36681305614773874,-0.93282960497024825,-0.57916281847054019,0.58011595916787573,-0.36383569480235467,-0.62376944665196632,-0.26575790513246345,-0.41140488813414433,-0.10488486223927662,0.49607373202082372,0.68721360213893834
