-0.36232870747398405,-0.94166849889272886,0.60984357495326225,-0.0017455496981322316,-0.38036604826295095,-0.72422887513583079,0.91358206996309121,-0.34245856972033639,-0.27559971994295784,-0.55953719909147726,0.18586980616498328,-0.34415554876965615,-0.030400693432801829,-0.20000466289801588,-0.073928870895743737,-0.88834980312263623,-0.78819553834960687,0.25944054929903637,0.29066662846747571,0.89176836216733135,-0.0025222768996970846,0.97947929777453702,0.58220942978569679,-0.11676973233271259,-0.7168395654597155,0.39203918775726199
0.088494587142404546,0.73672098423594323,-0.20763971691288829,0.051701911847052084,-0.77333708424963099,-0.6683480116722349,-0.8686514010258406,0.76900893745170351,-0.61798318485370829,-0.013668440955928896,-0.6911819860139492,0.54697069338386251,0.57556802757830461,0.86110176346140976,0.91274279285733462,-0.67856901667689962,-0.022274052934336819,-0.11926411563696471,-0.1296265052804324,0.78037639602481867,0.6881188508319569,-0.20361751691213192,-0.59512077490747406,0.93437222455734936,0.86416955021525865,0.44557030598737724
-0.42932750047586454,0.031181079405933954,0.030801438147390003,-0.63205899317713543,0.62368300708542423,-0.31325651911045127,0.57918861450759374,0.51206053310860788,0.27797515458129851,-0.84804215869803512,0.57901915151733307,0.7708905028147619,-0.51303946464765859,0.39084268105207576,-0.44734346652404056,-0.80425713691254641,-0.49313313323168262,0.57626177156669312,0.37075290420213669,-0.30054558876906823,-0.96875484452936589,0.77896575389110656,0.2952365632609979,-0.036845587457389417,-0.092396587366134098,0.5841750554464773
0.51995909899810733,0.48220404457415467,-0.1723859707044022,0.6096182706480815,-0.60396786015833182,-0.80331541057004863,0.51530222417041083,0.94464578730786997,0.56309418125856814,-0.17049472206508498,-0.68276246245928585,-0.66967172821195042,-0.79425614522758803,0.45975780767025731,0.043158206705700142,0.20451014631923337,-0.64722858023910779,-0.42956595471789427,-0.36188146696383394,0.91642277893479984,-0.57952158513025442,-0.70583826871777133,0.28730741102148549,0.42179362566863277,0.08861752850734983,-0.2929071702538224
