0.43946909923383681,-0.82730971556512745,0.76746182051483292,-0.048360140906821059,-0.8292042972554623,-0.97293006876246668,-0.80066019732053006,-0.89414804999220432,0.18072804003214848,0.27606508210364455,0.27864630710619287,0.29211689008544028,-0.90785425326344549,-0.75564068526005479,-0.37537144731291683,-0.04874912770871398,0.86690785010378835,0.30692683723601633,0.93700528530862526,-0.79948155499436968,0.51345945902710466,0.6990178589485907,-0.178732850142588,0.42387487453274897,0.13392986176165156,0.20613215258287987
-0.84579071293048314,-0.0072881047492348028,-0.4733499031445636,0.78653307438727316,0.6180091684468938,0.017001171143549376,0.83095086404194807,-0.1945579935814632,-0.20555569936095708,-0.84136286699054974,0.064195892483527972,0.26862306779057699,-0.34952017455800521,0.22830055875100208,-0.05815930982418327,-0.88657243863780577,0.45511030788307916,-0.4466017605979149,0.8628108863312407,0.97613237505827288,-0.41880251505130905,0.17238104987232372,0.42626991698551042,0.23000963868133284,-0.14769021241834546,0.45737695093541775
0.21239916950601634,0.65651625998506069,-0.60384172205374109,-0.43694844731720606,0.68719411246052964,0.35730130545329786,0.12030686947367619,-0.88735804849431887,0.59396561534831793,0.31046631765766319,-0.096920967686576542,0.39617630478982613,0.11757918258849509,0.92603487790615202,0.41382396694967727,0.5584514770045963,-0.41843526639274886,0.53410705908135547,-0.057494186273670866,-0.79593329861890183,0.11454992825895438,0.96964896914187637,0.33739109123005151,0.549394358702326,0.13311458703639767,0.84186003582587587
-0.86742314801005849,-0.50357019071327436,-0.98075659391425307,0.84802600063980882,-0.6757024338591946,-0.084494179742286013,-0.33405922120684184,0.010305751175122335,-0.062460615955661991,0.23866736038497183,-0.68795667400731531,0.54114386471153075,-0.35430794385346931,0.84577612211303133,-0.36851409244786426,0.53811772132930935,0.39213491699696212,0.95045482536331338,0.24046226974719143,-0.80638982413306559,0.87538784856696616,0.98583505018101714,-0.34412940442134765,0.23653802166465043,-0.65354187304574474,0.97923279263783192
