0.4369309091379312,-0.71597206959205906,-0.76236254426968042,0.93328106038395187,-0.7139787111328475,-0.63052054852817596,-0.070914423600441312,0.70177588001484503,0.39261237478207378,-0.48772561046784513,0.48149776301184066,0.055345241925454314,0.3782516977182504,0.76131342168041249,-0.28124788554083624,0.62826063087828476,0.68985652813658893,0.22528906442309404,0.78037226870337673,0.85585216486077531,0.22888142855543792,0.79819342569553786,0.61515102182188164,-0.60284179676651051,-0.7013178195991725,0.92896814528856431
-0.93923723777895307,-0.2713470039119803,-0.59411092964397172,-0.10907719340965749,-0.63636540187689872,0.6617275649011447,0.85955992300187667,-0.21398474487997676,0.81200756760738568,-0.81639364237306422,0.53520210892762066,0.74539386457848344,0.91730042942968137,-0.93918030275331899,-0.70363529366296995,-0.58893686433947745,0.56543399260259131,-0.63255512766908262,-0.46697421044265375,-0.85990929573037,0.88905395258398645,0.55310420757087941,0.9615124437501974,-0.6168952629307265,-0.55060031679814148,0.73448271277893817
0.81999594333087122,-0.68720856283367127,0.96832394003224298,0.77896093221486695,-0.81726048595190282,0.73138750967462118,0.040935147244813841,0.75383647525603448,-0.53188820494768629,-0.26372719623086094,0.47187666465904266,0.68882129052984675,0.72625206535856424,-0.62401400627986137,-0.47936068884881511,-0.61040323133481733,0.88920360820112365,-0.64664078931336721,0.55086142915857383,0.083675503995375156,-0.95669517837375517,-0.15339207120525611,-0.19633895757498876,-0.41056654221624234,0.38940236101667303,0.17194172705308275
-0.39874526223971252,-0.62564710965009174,0.6996429383070204,-0.88000343500106726,-0.11578377585543964,-0.77763426383581136,-0.80792290456989146,0.20406977824163808,-0.67210746749114314,0.83545387523762704,0.2191043200405669,-0.82984300116952503,-0.93284263724341487,0.31203397432372326,-0.85286504858999623,-0.71891568073413192,-0.0074420769141738674,0.67006287234086304,0.58417123650025493,0.076898055171344071,-0.70707762937584562,0.24106584500157346,0.99775789780103996,-0.20382368567441977,-0.80713493458579899,0.31043237977118188
