-0.81181868802553492,-0.37681099939145191,0.76828891397510857,-0.21255798871908116,0.80982554612662083,-0.50065748788225206,0.4961497159668713,0.02698488434305002,0.8743916509113332,-0.23533646146455744,0.47333424175538275,0.11741094840280009,-0.56251675588348604,0.96569990758940905,-0.97230410385788657,0.014792762901316481,0.89917720733050577,0.42060010853826513,0.21920131787387054,0.9886944015535839,0.16174722448865797,0.0096131958832261777,-0.99979618297925477,0.70894506283455239,-0.40769515825579505,-0.3792772207241244
0.84987043879332735,-0.30175204185429783,-0.5611325281077284,-0.46716584996240451,0.75398685077409322,0.34672994050417349,0.15501611862292375,-0.38737286766335055,0.51090264959996357,-0.75456872528735208,-0.14394685223439918,-0.65335742423355936,0.3935535477392984,0.61328748357516893,0.20471941496043322,0.4834656079167472,-0.89699396001441256,-0.65190530484796683,-0.050792992994582953,0.36805293977417852,0.12108974856609467,0.015600714270731952,-0.75829169068354263,0.95950485076854197,-0.43949962945099852,0.37331315298283529
-0.19183311516414059,0.81350637464615261,-0.39503740759197581,-0.62091523223081024,0.028489867368827193,-0.83946547342271782,0.86300398463615813,-0.14841009489118751,-0.70973040789623143,0.54042837092880536,-0.37045811464640854,0.14178805923677884,0.60790282087217951,0.18310836525114982,-0.65213147034891206,-0.90786677247069636,0.12678476160271179,-0.81004374493034725,-0.56100848892904254,0.70881747011667029,-0.13415997761146192,0.61761763510467649,-0.48055147052812774,0.28826901421886753,-0.88856695218510562,-0.778450494389336
-0.97122109571870552,0.57459649541995383,-0.37418150682791196,0.89726001025491886,-0.13894447270512411,0.3177526909094075,0.99600111640769806,0.19429672275404664,0.41627687267712732,0.66969252501289867,-0.45626488641077323,-0.65388844424145409,-0.93022082614164492,0.95255493395145674,-0.66376847529966954,0.47966806586159594,0.22670218728814784,0.41070388102408639,0.30708000415677694,-0.78983146201888244,0.6106966438802639,-0.84690137210509797,-0.79974070143370746,-0.0094895302284276895,0.93498269226664443,0.70810359606560058
