0.78588089148165352,-0.3447522422589131,-0.08094793220538854,-0.42819629425390504,0.73692931495234038,0.17288507635123862,-0.059545834681010268,0.34287574440250945,0.37874213995748529,-0.69382970809124656,-0.20954327943418405,-0.78157140336029252,0.65732652310337913,0.61906584841018364,-0.11181619326116321,0.204238492405455,-0.95564142744818592,-0.10454918826080761,0.077272469560008661,0.36405529779203794,-0.0091029126307531349,0.33254254759363455,-0.67675039880594512,0.48695688323350605,0.63101011269534091,0.73382446406228286
0.98239965459432677,0.46603926609490487,0.35479558937227496,0.36174294985797451,-0.94057116824804243,0.031383378614908919,-0.41825420888260401,-0.76096942492105879,0.08687240444662625,-0.55633488053760694,0.35218552561626049,0.23887883554198286,0.29210283592405939,-0.20009004024392074,-0.13060717567198821,-0.909949768196884,-0.50840737374725187,-0.26611318038303544,-0.24606886491161384,-0.08091159105368706,0.057729721628443142,-0.94393080986040601,0.044233690531858993,-0.22115232082810987,-0.73212716867116012,-0.083108278765534394
0.37421666404981102,0.50320963028465049,-0.10438607214537665,-0.67679461881644509,0.48639960032161644,0.88306626662523824,-0.95726058025326899,-0.13715615766962652,-0.16375118635370844,0.50098180078934407,0.31320999173226927,0.0039862802325771884,-0.75731201600007303,-0.12842693489499757,-0.82259111104825289,0.44942203000070591,-0.55201776150342607,0.83951534155592999,-0.24111298347479404,0.93093228011538431,0.97882710283271379,-0.43220099122301092,-0.051930534333619383,-0.24872112188154505,0.95294942917637426,0.87108201102589278
-0.95376875846602749,0.25225091850434356,-0.3285884254688165,-0.31485459158237172,-0.64124793132639146,-0.72649947681928007,-0.3696319882953063,-0.33301277814071595,-0.20830526977956376,0.18328239394739665,0.37289987392365864,0.038212129290662089,-0.059434701308377358,-0.36443423857350421,0.9209488162247832,0.77661958880739856,-0.58491042335883447,-0.722320028548739,0.95758925751274426,0.98752370471817752,-0.41866211393180186,-0.35165731943459733,-0.88355502024158117,0.85458418290708016,-0.22400560000543579,-0.22885496573810493
