0.29894865902577905,-0.39206043948158098,0.70454095918617665,0.17451882269559316,0.024214212345242236,0.34082210835668825,-0.72098459634484158,-0.03135058524224088,0.17564320676589107,0.21772075628337051,-0.50596932026221531,-0.24291848007352645,0.22100012196390995,-0.80650242253584037,-0.97303136519760258,-0.65619168558856122,-0.2337956237341603,-0.067821318036697109,0.92619774065313587,-0.46623336553023242,0.59980449278414572,-0.45959449292421284,-0.55677844850871927,-0.56969047810194939,-0.065914311925958646,-0.96469705802480488
0.97399443817480935,0.69867911788234682,-0.50016202755978689,-0.41185285635800195,-0.84248556837314736,-0.64821873160200938,0.24887856051582014,0.011127698657815044,0.74505420295080937,0.69691348013613319,0.91621710697556491,0.69755902136912051,0.18438552003951725,0.60907693470599256,-0.78713592636755902,0.85260228948929506,0.41521976034625152,0.76122301310848828,0.52977164647143193,-0.22612733189998435,0.38454451512729859,-0.6582375891118657,-0.63734198624427685,0.48952703970739497,0.47608278403325288,0.085315777280960958
-0.56605115802741013,-0.78981057245722641,-0.85827998752282286,0.65411929438579275,0.96991478126809194,0.8217567003812436,-0.79418699918647739,0.66705777091011798,-0.7062361088552318,-0.66768150290253203,0.58189913536177373,-0.63431630193405319,-0.096744543888840351,-0.39741514139595946,0.17736111661875498,0.81513037649973596,0.69227924524836748,-0.71907475306532165,-0.94774988619582512,-0.20510876665138666,-0.082106047347769495,0.90706389219521699,0.90976795565122126,0.73483146055910642,-0.47783168503650764,0.82956012931410106
0.44110414135063358,-0.56518489451603737,0.76658113821944851,0.26721212705046593,0.79646885934488054,0.232306273473317,-0.33065570824205692,0.4521104470165811,0.49023138588079385,0.95371693022469839,0.39818142077226271,0.081946006460991372,-0.90311409733151016,-0.64343130494048451,0.46875533367310473,0.81385618365438428,0.19355096562133967,-0.17826560434799554,-0.068199624273058257,0.066713958676840823,-0.84392046339720417,0.38362092235628831,0.59419826499403272,0.89340387465790272,-0.52973670710087672,0.098221142372854064
