0.17133944641819054,-0.90293994483555817,-0.55203116017021348,0.10506109773748196,0.66336996454692954,0.2172009140188611,-0.39134302130506415,0.34438203483040253,0.76123343917325381,-0.6307615531745443,0.059397039287714115,-0.3524330264654647,-0.16737081030461209,-0.33432393443552377,-0.95331747285312329,-0.12071867647967838,0.22877728018009225,-0.92553583616937085,0.51868880621532742,-0.77901635700619187,-0.031573959952862607,0.25168819870617853,0.29793513398883875,0.42263756010280851,0.84417669197364686,0.47838302354386886
0.98802778911269118,-0.753559135214529,-0.04681527634467586,-0.95558261635993946,0.71343312396735437,-0.17801434807908256,0.70400468246996328,-0.067694550044538948,-0.13852647146390917,0.30824688462566785,0.45119435411094266,0.23738693184505988,-0.11143074448853607,0.11764070508206648,-0.19797385104356646,0.43981532715908145,-0.092326528664389951,0.7245261828606866,0.61495627884643089,-0.86785097289331747,0.73045647804809066,-0.43062761409777406,-0.51648849203471392,0.86499129043390566,0.46958385703873384,0.54284373016872811
-0.53943293287070171,0.95815940261194044,0.23740013675095617,-0.015235693474676903,-0.25133229503771082,-0.94909865985838193,0.084667855466071806,0.80158428033913198,0.2157669926924346,0.36796430388523271,-0.43145905596411094,-0.42372780029263835,-0.62009695152925293,-0.29917047624548654,0.025103487837433214,0.17774528009402513,0.58476003161415568,-0.57888304787873168,0.84381910787669878,0.73166052542436621,0.32105637858588953,0.020369048548438684,-0.34036279648546697,-0.18510826133791003,0.70408426552225589,-0.92316299263894375
0.9089779595347971,0.75136919589542428,-0.16073712007953689,-0.48938037744309804,0.84754551886762886,-0.65383489092440605,-0.3282623022072384,0.9210484671102559,0.18154790446403579,-0.64234061825624544,0.76314071528838423,0.14763417527430733,0.12178298967641266,-0.53312365407096984,0.75207653439373079,0.53293870020772283,-0.05587829591581106,-0.52301879420713671,-0.80088330816497844,0.30076831557307826,0.92554065021824905,-0.43909584075628394,0.82071936218763386,0.49624472249261298,-0.50372288275258281,-0.91445320894489357
