-0.56121224649843282,0.48558245094976127,-0.070056799245470147,0.72662482628221015,0.34668050952169738,-0.34363002221411776,0.38312882593793907,0.22762096970897483,-0.75885597401794791,-0.078776026381671027,-0.42313418186949026,0.72978773469319536,-0.060489033114571988,0.066869799504984062,-0.75968456706135834,0.43741209926882796,-0.88531906034760088,-0.37571275039543117,0.50135201811697216,-0.058407699695296023,0.74680669683036704,0.65498704960499943,-0.17375924774332896,0.78353856575515524,0.59032150773761227,-0.96112631403305571
0.49129283480020858,-0.15920030666422091,0.84066082872437375,-0.9603732219616159,-0.88682936642520427,0.91295560477515436,-0.26745974596646516,0.02481982732263055,-0.67905133799747075,-0.68830825008038321,0.24827436198965702,0.1090875192901799,-0.56328506760002739,-0.63993205180963431,0.44581068308370542,0.22235183143074155,0.86796862682834575,-0.65342378178138794,-0.68496198587425461,0.17096768475421031,0.37720939108025076,-0.31417722379252977,-0.82783381630988351,0.72537893805847409,0.17963597952482946,0.32459383874168735
-0.62129347499720655,0.9569263005873283,-0.97349660561853879,-0.81039044959988704,-0.1822007636826195,0.54715273528165298,0.17251888161137741,0.37104836436463495,-0.96143363303530638,-0.33117604982414428,0.44785338441543177,-0.33956821945456994,-0.74538316490169843,-0.79028485929504377,0.26634919585703809,-0.63465768511669274,0.15926424518327664,0.48843730442022482,0.11373378173709914,-0.64304515971524356,-0.54955064919197061,0.69995131514043352,0.89241738887277888,-0.58684832434580581,0.45951485685444227,-0.12085218675481846
0.80694977317715288,-0.13882508647455749,0.048665837738857354,-0.94895031220890447,-0.61015358287971178,-0.63660678452560715,-0.13833027078651527,0.5049204007929835,-0.13921109048765179,-0.11227059945003814,-0.31519737564336725,0.56937225718935913,-0.065645786210888568,0.55664068638025221,-0.34661995623870534,0.79693976863387128,0.19998211056852289,-0.45449020934157014,0.73109770644401051,0.65857825271524972,0.47463480512439937,0.13933912870555942,-0.011382652209987354,0.32422933392633047,0.33359884186824651,0.95001605658623567
