-0.31190604026818525,0.27754264703984033,0.16796171104483104,-0.2027761910793382,0.23638224440380151,0.42502077036034458,-0.61904208580574416,0.56418223418828894,-0.40820354506477341,-0.23064358404123908,-0.93335868472305772,0.65234944188367416,-0.68560990805287947,0.10997630335977515,0.35243543933498978,0.43803991317196789,0.89761471151729522,-0.34544394026334335,0.19005993891546757,-0.51024528677578473,-0.74478159580058634,-0.74781751659900109,0.98517801292869578,-0.65866937148867688,0.95400347659230911,0.91110640473740978
-0.25929215433773889,0.16470584522538068,-0.87845753647058533,0.34813817373527423,0.78446015580487138,-0.17507643341071288,0.35522982749728538,0.3624530171066831,-0.73822895386139864,0.27577575119656972,0.83528895598512087,-0.64984299848644556,0.20069407362916558,0.062510920303029183,0.29658043356317054,0.53953086366765901,0.19124921958859642,0.27333639193464299,0.41789111157953474,0.84560865650500272,-0.43962647158127033,-0.39949539526519406,-0.19472114040522359,-0.043648210393897324,-0.55501267455620518,-0.43849574250098011
-0.64127824459643312,-0.59632203709495757,-0.94095711411333682,-0.84941123823170606,-0.35630848876425136,0.44832393169202001,0.18527491031060705,0.37941857696145287,0.00081225924368699687,-0.11024863200208679,0.28150269263585592,0.92633551165264838,0.95573412318546325,-0.2094703273859122,0.84855122266117955,0.53249035070650708,-0.95383111881037141,-0.26576668884607191,0.31826966852244798,0.025743404601179298,-0.55960285618255479,0.62685896067464109,-0.93567205935304565,-0.26847619778507048,-0.12353259826236584,-0.77771326686822428
0.10781578501050304,0.23324263444662519,0.20727158091359121,0.72714437502174567,-0.79626207111814962,-0.99254740092139171,-0.38877731216606048,-0.31560369746072592,-0.0052201743712285698,-0.11744110817401654,0.64339320828011615,0.69850003532966976,-0.98967991249112641,-0.71344090909853319,-0.82494389268896851,-0.15858072480761809,-0.81488718961728224,0.79307660225332666,0.53549400952720561,-0.27071822229705811,0.65789376927106646,-0.61527025621330877,-0.81725425432956111,-0.99016324784333798,0.26303456461722585,-0.41202811994090149
